#ifndef MODEL_LR_H
#define MODEL_LR_H

#define NUM_CLASSES 5
#define NUM_SELECTED 47
#define NUM_FEATURES 47
#define AGG_FEATURES 40

float weights[5][47] = {
  {0.32830879, -0.13016937, 0.29646568, 0.04522115, 0.02227786, 0.07577219, 0.10662292, -0.12571162, 0.00835847, -0.31623629, -0.34734916, -0.27395096, -0.08318673, -0.16186661, -0.22002665, -0.22950471, -0.16240110, -0.05332919, 0.25214970, 0.23882924, 0.24067422, 0.12914324, 0.17432218, 0.25644221, 0.19181765, -0.05199448, 0.01780772, -0.06475853, -0.24467214, -0.07751637, -0.08802899, -0.15319634, -0.21396412, 0.01885438, -0.19928694, -0.02089890, -0.04765172, 0.22034827, -0.13735611, 0.08262755, -0.44297641, 0.16357860, 0.85457669, 0.78667081, -0.30567637, -0.06789376, 0.31374892},
  {-0.27562666, -0.46542866, -0.16735974, -0.02099667, -0.10418541, -0.01489544, -0.25862223, 0.18875373, -0.62578783, 0.81365048, 0.49128587, 0.38823561, -0.29843762, -0.21548414, -0.17814438, 0.15415403, 0.18783739, -0.51646687, -0.73059113, -0.35895909, -0.41268418, 0.20198845, 0.22604928, -0.05025816, -0.23112798, 0.24302377, -0.54532645, 0.02489060, 0.53913083, 0.25812192, -0.22749363, 0.00906714, -0.26528175, -0.21655719, 0.23252665, -0.62475715, -0.20047177, -0.12504580, -0.19029460, 0.18922624, 0.00589898, -0.40332291, -0.52727862, -0.44353015, 0.02515678, -0.32521977, -0.24252190},
  {-1.20529626, 0.05356584, -0.68893329, -0.16434187, 0.09948949, -0.22050599, 0.04129459, -0.06034635, -0.74604077, 0.36321393, 0.31287871, 0.03233804, -0.35543059, -0.17493492, 0.07643444, 0.45277227, 0.22710779, -0.19169701, -0.52034729, -0.25168298, -0.14522597, 0.28569001, -0.02627804, 0.03739804, -0.19887982, -0.29880117, -0.83255376, 0.06875147, 0.14714776, -0.03221174, -0.12133035, -0.17317128, 0.33900732, 0.21453146, -0.03868620, -0.69115349, -0.36492934, 0.06890019, -0.25503441, -0.22280242, -0.18495297, -0.19084448, -0.21484206, -0.23446280, 0.14183200, 0.19466401, 0.04518316},
  {0.71500799, 0.39894398, 0.22536440, -0.00316967, -0.16356382, -0.43098128, 0.04562181, 0.02792190, 0.74057436, -0.33178953, 0.24606534, 0.09632486, -0.07084256, 0.23649066, 0.76971951, -0.36243609, -0.27584181, 0.63845686, 0.39059313, 0.08411864, -0.35762405, -0.15232386, -0.37839795, -0.41119142, 0.26685314, 0.02972156, 0.69511687, 0.14090341, -0.02307735, -0.11848213, -0.39496315, 0.02209416, 0.28958320, 0.04386061, -0.15860484, 0.79759663, 0.22697687, -0.22824851, 0.32989546, -0.16477393, 0.38872273, 0.12605090, 0.01644297, 0.05216270, -0.07940355, -0.10251314, -0.19158921},
  {0.43760613, 0.14308821, 0.33446296, 0.14328706, 0.14598188, 0.59061052, 0.06508291, -0.03061765, 0.62289576, -0.52883860, -0.70288077, -0.24294754, 0.80789750, 0.31579501, -0.44798293, -0.01498550, 0.02329773, 0.12303622, 0.60819559, 0.28769419, 0.67485999, -0.46449785, 0.00430454, 0.16760932, -0.02866299, 0.07805033, 0.66495562, -0.16978694, -0.41852911, -0.02991167, 0.83181611, 0.29520631, -0.14934466, -0.06068925, 0.16405133, 0.53921291, 0.38607597, 0.06404585, 0.25278965, 0.11572256, 0.23330768, 0.30453789, -0.12889898, -0.16084056, 0.21809114, 0.30096265, 0.07517904}
};
float bias[5] = {-0.78929020, 0.26018854, 0.54978543, 0.06742916, -0.08811292};

float scaler_agg_mean[40] = {0.10816773, -0.85872306, 0.07457309, -0.44970092, -0.33395720, 0.70630430, -19.17851043, 175.60137002, -185.11522850, -0.00003836, 0.19473864, 0.14094168, 0.19235791, 47.43611864, 41.81550241, 43.50456003, 68.33942818, 51.13604424, 52.71588966, 2.61304204, -0.42843098, -1.27336643, -0.46700099, -109.75633565, -105.44248262, -103.15872890, -143.45676266, 60.57319762, -290.34901688, -6.42910626, 0.62890765, -0.47047666, 0.61067527, 115.27271102, 108.33354518, 99.74095333, 99.49412115, 259.61371400, -93.27616683, 6.38765641};
float scaler_agg_std[40] = {0.35833548, 0.14778385, 0.12738363, 5.50592955, 6.10376951, 6.87215827, 225.28729019, 127.34735709, 242.32720225, 0.04600982, 0.16032050, 0.11448789, 0.12397318, 35.36135961, 29.05037077, 29.26580148, 46.15995045, 32.33670595, 40.61757588, 0.50731699, 0.88899513, 0.57155365, 0.53954719, 83.78558135, 79.70790845, 72.01827936, 220.08265332, 134.68544724, 193.76107267, 1.81069508, 0.62368670, 0.45543433, 0.44477876, 93.38195210, 83.76042151, 71.67126397, 250.58847058, 135.62127847, 279.74029143, 1.63509763};

float scaler_final_mean[47] = {-0.00000000, 0.00000000, 0.00000000, -0.00000000, -0.00000000, 0.00000000, -0.00000000, 0.00000000, -0.00000000, 0.00000000, 0.00000000, 0.00000000, -0.00000000, -0.00000000, -0.00000000, -0.00000000, 0.00000000, -0.00000000, 0.00000000, 0.00000000, 0.00000000, -0.00000000, -0.00000000, -0.00000000, -0.00000000, 0.00000000, 0.00000000, -0.00000000, 0.00000000, 0.00000000, -0.00000000, -0.00000000, -0.00000000, -0.00000000, 0.00000000, -0.00000000, 0.00000000, 0.89177081, -0.08214325, 2.12876038, -0.59685989, 0.55072941, 3.72432489, 15.55250457, 13.62164846, 1.06388978, 40.00000000};
float scaler_final_std[47] = {1.00000000, 1.00000000, 1.00000000, 1.00000000, 1.00000000, 1.00000000, 1.00000000, 1.00000000, 1.00000000, 1.00000000, 1.00000000, 1.00000000, 1.00000000, 1.00000000, 1.00000000, 1.00000000, 1.00000000, 1.00000000, 1.00000000, 1.00000000, 1.00000000, 1.00000000, 1.00000000, 1.00000000, 1.00000000, 1.00000000, 1.00000000, 1.00000000, 1.00000000, 1.00000000, 1.00000000, 1.00000000, 1.00000000, 1.00000000, 1.00000000, 1.00000000, 0.32898205, 0.63547189, 0.43183119, 1.00889753, 0.39180187, 0.39869528, 1.27673516, 5.40451727, 4.43544092, 0.37936381, 26.62025998};

int selected_indices[NUM_SELECTED] = {0, 1, 2, 3, 4, 5, 6, 7, 8, 10, 11, 12, 13, 14, 15, 16, 17, 18, 20, 21, 22, 23, 24, 25, 26, 27, 28, 30, 31, 32, 33, 34, 35, 36, 37, 38, 40, 42, 43, 45, 46, 47, 52, 53, 54, 56, 57};

#endif // MODEL_LR_H
