#ifndef MODEL_LR_H
#define MODEL_LR_H

#define NUM_CLASSES 5
#define NUM_SELECTED 47
#define NUM_FEATURES 47
#define AGG_FEATURES 40   // 10 channels × 4 (mean, std, min, max)

float weights[5][47] = {
  {0.39187671, -0.11304839, 0.28971404, 0.02671099, -0.04000865, 0.05070311, 0.23920403, -0.11259848, 0.06414079, -0.38396059, -0.32198730, -0.34965435, -0.09484940, -0.21884799, -0.30872879, -0.31564314, -0.25716085, -0.05275915, 0.28681276, 0.14719676, 0.28280382, 0.14672961, 0.18791457, 0.35126204, 0.36055333, 0.07911355, -0.03079200, -0.26816753, -0.12293794, -0.11516374, -0.23213583, -0.30339973, 0.10695356, -0.23178583, 0.02611300, 0.08536525, -0.05046313, 0.01885150, 0.09436006, -0.18737012, -0.04299485, -0.19006585, 0.52378612, 0.11166972, 0.11166972, 0.76356306, -0.42289338},
  {-0.43281990, -0.53268403, -0.15434382, -0.02731503, -0.07095896, -0.02773466, -0.20065352, 0.28296845, -0.65067580, 0.73000002, 0.36791060, 0.42863753, -0.17499652, -0.09235745, 0.01088791, 0.31467065, 0.20305054, -0.48110599, -0.60519329, -0.17753354, -0.32664558, 0.02295149, 0.19158621, -0.21098231, -0.22337496, -0.58672153, -0.12299358, 0.39348348, 0.18575900, -0.14249475, 0.15206541, -0.09352518, -0.10512028, 0.35448936, -0.62752118, -0.35426916, -0.22199065, -0.26189812, -0.25641340, -0.02938503, -0.17972490, -0.21234040, -0.05369223, -0.38823035, -0.38823035, -0.54101471, 0.90204411},
  {-1.23605041, -0.03882454, -0.70627921, -0.16114711, 0.10997745, -0.22878616, 0.07909929, -0.04623290, -0.63769813, 0.42251799, 0.38369097, 0.07822295, -0.35804612, -0.18792968, 0.01008789, 0.40500293, 0.24819264, -0.14393797, -0.66510485, -0.39517527, -0.27162546, 0.31264857, -0.05749691, 0.05563016, -0.14766178, -0.72140716, 0.02231090, 0.17701348, 0.01457071, -0.12156305, -0.21871588, 0.25452597, 0.22963736, -0.03228542, -0.59373482, -0.36130684, 0.26291771, 0.21556485, -0.46174135, -0.17932278, -0.32457460, -0.01525988, -0.36830441, -0.00192391, -0.00192391, -0.01127301, 0.36730094},
  {0.73991521, 0.42042723, 0.33062782, 0.05486379, -0.15094502, -0.36484472, 0.00273154, 0.06206576, 0.52228314, -0.26703567, 0.22043969, 0.10683762, -0.11807166, 0.23739671, 0.77854824, -0.38233366, -0.26948584, 0.54820571, 0.36047739, 0.16562116, -0.33733982, -0.09433417, -0.38821211, -0.42858636, 0.22304107, 0.46609198, 0.21113374, 0.04904599, -0.02565367, -0.37484409, 0.01545411, 0.32536842, -0.00614547, -0.12877236, 0.59494133, 0.29042678, -0.13091706, -0.14880458, 0.10026092, 0.20554700, 0.19275662, 0.27242484, -0.06889517, 0.15155636, 0.15155636, -0.27160505, -0.88131849},
  {0.53707838, 0.26412973, 0.24028116, 0.10688736, 0.15193518, 0.57066243, -0.12038134, -0.18620283, 0.70195000, -0.50152175, -0.65005396, -0.26404376, 0.74596369, 0.26173841, -0.49079526, -0.02169678, 0.07540351, 0.12959740, 0.62300799, 0.25989090, 0.65280704, -0.38799551, 0.06620825, 0.23267646, -0.21255766, 0.76292318, -0.07965905, -0.35137542, -0.05173809, 0.75406563, 0.28333219, -0.18296948, -0.22532517, 0.03835424, 0.60020167, 0.33978397, 0.14045313, 0.17628635, 0.52353378, 0.19053094, 0.35453772, 0.14524129, -0.03289431, 0.12692817, 0.12692817, 0.06032970, 0.03486681}
};
float bias[5] = {-1.03459911, 0.50097565, 0.57212224, -0.03707095, -0.00142783};

float scaler_final_mean[47] = {0.10748984, -0.85919381, 0.07444985, -0.44550484, -0.32887997, 0.71367530, -19.30736837, 175.79391923, -185.31981662, 0.19481945, 0.14103036, 0.19225617, 47.43015158, 41.80195739, 43.47129075, 68.40176989, 51.13260406, 52.73852008, -0.42944223, -1.27415339, -0.46562749, -109.78427291, -105.35518924, -103.05662351, -143.61815737, -290.62954183, 0.62840637, -0.47056773, 0.61096614, 115.26695219, 108.24567729, 99.69406375, 99.48886454, 259.78981076, -93.52704183, 4.46713090, 134.89440852, 18512.89619683, 0.50071175, 314.57139432, 46.59218827, -0.67930280, 2.95296273, 14673.55278398, 733.67763920, 14.24701195, 182.37756945};
float scaler_final_std[47] = {0.35801123, 0.14713521, 0.12729644, 5.50706495, 6.11070029, 6.86556911, 225.19134310, 127.23475448, 242.05428788, 0.16055300, 0.11464231, 0.12389899, 35.37108238, 29.08008380, 29.29860513, 46.21405474, 32.36198744, 40.65493738, 0.89000453, 0.57212139, 0.53582931, 83.83693800, 79.77654308, 72.09097419, 219.93741472, 193.24618440, 0.62413227, 0.45593800, 0.44504349, 93.46475268, 83.73356835, 71.73846010, 250.58005476, 135.46245232, 279.56637760, 31.61707077, 17.78748851, 4960.52517483, 0.44384544, 150.99396210, 32.61924590, 1.19195689, 1.67097082, 2498.36924699, 124.91846235, 2.93059507, 22.33004775};

// Indices of 47 selected features from the 58D combined vector (40 agg + 18 extracted)
int selected_indices[NUM_SELECTED] = {0, 1, 2, 3, 4, 5, 6, 7, 8, 10, 11, 12, 13, 14, 15, 16, 17, 18, 20, 21, 22, 23, 24, 25, 26, 28, 30, 31, 32, 33, 34, 35, 36, 37, 38, 40, 41, 42, 43, 45, 47, 48, 49, 50, 51, 54, 56};

#endif // MODEL_LR_H
